<?xml version="1.0" encoding="UTF-8"?>
<BIF VERSION="0.3"  xmlns="http://www.cs.ubc.ca/labs/lci/fopi/ve/XMLBIFv0_3"
	xmlns:xsi="http://www.w3.org/2001/XMLSchema-instance"
	xsi:schemaLocation="http://www.cs.ubc.ca/labs/lci/fopi/ve/XMLBIFv0_3 http://www.cs.ubc.ca/labs/lci/fopi/ve/XMLBIFv0_3/XMLBIFv0_3.xsd">
<NETWORK>
<NAME>Mondial</NAME>
<PROPERTY>short = </PROPERTY>
<PROPERTY>detailed = </PROPERTY>

<VARIABLE TYPE="nature">
	<NAME>Has(Country1, Economy)</NAME>
	<OUTCOME>true</OUTCOME>
	<OUTCOME>*</OUTCOME>
	<OUTCOME>false</OUTCOME>
	<PROPERTY>position = (7359.86474609375, 5051.2470703125)</PROPERTY>
</VARIABLE>

<VARIABLE TYPE="nature">
	<NAME>Borders(Country1, Country2)</NAME>
	<OUTCOME>true</OUTCOME>
	<OUTCOME>*</OUTCOME>
	<OUTCOME>false</OUTCOME>
	<PROPERTY>position = (7614.67626953125, 5046.5)</PROPERTY>
</VARIABLE>

<VARIABLE TYPE="nature">
	<NAME>government(Country1)</NAME>
	<OUTCOME>communist</OUTCOME>
	<OUTCOME>democ</OUTCOME>
	<OUTCOME>dependent</OUTCOME>
	<OUTCOME>monarch</OUTCOME>
	<OUTCOME>republic</OUTCOME>
	<PROPERTY>position = (7660.962890625, 5368.36865234375)</PROPERTY>
</VARIABLE>

<VARIABLE TYPE="nature">
	<NAME>Population(Country1)</NAME>
	<OUTCOME>0</OUTCOME>
	<OUTCOME>1</OUTCOME>
	<OUTCOME>2</OUTCOME>
	<OUTCOME>3</OUTCOME>
	<OUTCOME>4</OUTCOME>
	<PROPERTY>position = (7541.92431640625, 5403.5)</PROPERTY>
</VARIABLE>

<VARIABLE TYPE="nature">
	<NAME>percentage(Country1)</NAME>
	<OUTCOME>0</OUTCOME>
	<OUTCOME>1</OUTCOME>
	<OUTCOME>2</OUTCOME>
	<OUTCOME>3</OUTCOME>
	<OUTCOME>4</OUTCOME>
	<PROPERTY>position = (7484.837890625, 5129.103515625)</PROPERTY>
</VARIABLE>

<VARIABLE TYPE="nature">
	<NAME>continent(Country2)</NAME>
	<OUTCOME>Africa</OUTCOME>
	<OUTCOME>America</OUTCOME>
	<OUTCOME>Asia</OUTCOME>
	<OUTCOME>Europe</OUTCOME>
	<OUTCOME>aus</OUTCOME>
	<PROPERTY>position = (7714.96337890625, 5098.7216796875)</PROPERTY>
</VARIABLE>

<VARIABLE TYPE="nature">
	<NAME>religion(Country2)</NAME>
	<OUTCOME>0</OUTCOME>
	<OUTCOME>1</OUTCOME>
	<PROPERTY>position = (7553.3173828125, 5181.32470703125)</PROPERTY>
</VARIABLE>

<VARIABLE TYPE="nature">
	<NAME>religion(Country1)</NAME>
	<OUTCOME>0</OUTCOME>
	<OUTCOME>1</OUTCOME>
	<PROPERTY>position = (7830.6474609375, 5195.98828125)</PROPERTY>
</VARIABLE>

<VARIABLE TYPE="nature">
	<NAME>continent(Country1)</NAME>
	<OUTCOME>Africa</OUTCOME>
	<OUTCOME>America</OUTCOME>
	<OUTCOME>Asia</OUTCOME>
	<OUTCOME>Europe</OUTCOME>
	<OUTCOME>aus</OUTCOME>
	<PROPERTY>position = (7766.1669921875, 5273.552734375)</PROPERTY>
</VARIABLE>

<VARIABLE TYPE="nature">
	<NAME>industry(Economy)</NAME>
	<OUTCOME>0</OUTCOME>
	<OUTCOME>1</OUTCOME>
	<OUTCOME>2</OUTCOME>
	<OUTCOME>3</OUTCOME>
	<OUTCOME>4</OUTCOME>
	<PROPERTY>position = (7265.03662109375, 5353.1767578125)</PROPERTY>
</VARIABLE>

<VARIABLE TYPE="nature">
	<NAME>gdp(Economy)</NAME>
	<OUTCOME>0</OUTCOME>
	<OUTCOME>1</OUTCOME>
	<OUTCOME>2</OUTCOME>
	<OUTCOME>3</OUTCOME>
	<OUTCOME>4</OUTCOME>
	<PROPERTY>position = (7390.12890625, 5376.91357421875)</PROPERTY>
</VARIABLE>

<VARIABLE TYPE="nature">
	<NAME>Agriculture(Economy)</NAME>
	<OUTCOME>0</OUTCOME>
	<OUTCOME>1</OUTCOME>
	<OUTCOME>2</OUTCOME>
	<OUTCOME>3</OUTCOME>
	<OUTCOME>4</OUTCOME>
	<PROPERTY>position = (7443.65380859375, 5228.796875)</PROPERTY>
</VARIABLE>

<VARIABLE TYPE="nature">
	<NAME>service(Economy)</NAME>
	<OUTCOME>0</OUTCOME>
	<OUTCOME>1</OUTCOME>
	<OUTCOME>2</OUTCOME>
	<OUTCOME>3</OUTCOME>
	<OUTCOME>4</OUTCOME>
	<PROPERTY>position = (7283.4326171875, 5252.53466796875)</PROPERTY>
</VARIABLE>

<DEFINITION>
	<FOR>Has(Country1, Economy)</FOR>
	<TABLE>0.004 0.0 0.996</TABLE>
</DEFINITION>

<DEFINITION>
	<FOR>Borders(Country1, Country2)</FOR>
	<TABLE>0.012 0.0 0.988</TABLE>
</DEFINITION>

<DEFINITION>
	<FOR>government(Country1)</FOR>
	<GIVEN>continent(Country1)</GIVEN>
	<TABLE>0.0 0.239 0.043 0.065 0.653 0.025 0.2 0.275 0.0 0.5 0.052 0.131 0.0 0.236 0.581 0.0 0.317 0.048 0.243 0.392 0.0 0.2 0.5 0.1 0.2</TABLE>
</DEFINITION>

<DEFINITION>
	<FOR>Population(Country1)</FOR>
	<GIVEN>government(Country1)</GIVEN>
	<TABLE>0.0 0.0 0.333 0.333 0.334 0.146 0.243 0.268 0.219 0.124 0.84 0.16 0.0 0.0 0.0 0.208 0.333 0.125 0.166 0.168 0.054 0.163 0.239 0.25 0.294</TABLE>
</DEFINITION>

<DEFINITION>
	<FOR>percentage(Country1)</FOR>
	<GIVEN>Borders(Country1, Country2)</GIVEN>
	<GIVEN>continent(Country2)</GIVEN>
	<GIVEN>religion(Country2)</GIVEN>
	<TABLE>0.23 0.153 0.169 0.338 0.11 0.449 0.521 0.0 0.0 0.03 0.0 0.666 0.0 0.0 0.334 0.061 0.246 0.138 0.461 0.094 0.142 0.054 0.285 0.461 0.058 0.0 0.0 0.25 0.75 0.0 0.0 0.2 0.6 0.2 0.0 0.181 0.181 0.28 0.322 0.036 0.2 0.2 0.2 0.2 0.2 0.0 0.0 1.0 0.0 0.0 0.2 0.2 0.2 0.308 0.092 0.2 0.2 0.2 0.308 0.092 0.2 0.2 0.2 0.308 0.092 0.2 0.2 0.2 0.2 0.2 0.2 0.2 0.2 0.308 0.092 0.2 0.2 0.2 0.2 0.2 0.2 0.2 0.2 0.308 0.092 0.2 0.2 0.2 0.2 0.2 0.2 0.2 0.2 0.308 0.092 0.2 0.2 0.2 0.2 0.2 0.199 0.2 0.2 0.307 0.094 0.198 0.198 0.2 0.309 0.095 0.2 0.197 0.2 0.309 0.094 0.2 0.2 0.2 0.2 0.2 0.2 0.2 0.199 0.307 0.094 0.2 0.2 0.2 0.2 0.2 0.2 0.2 0.198 0.308 0.094 0.2 0.2 0.2 0.2 0.2 0.2 0.2 0.2 0.2 0.2 0.2 0.2 0.2 0.2 0.2</TABLE>
</DEFINITION>

<DEFINITION>
	<FOR>continent(Country2)</FOR>
	<TABLE>0.248 0.216 0.205 0.221 0.11</TABLE>
</DEFINITION>

<DEFINITION>
	<FOR>religion(Country2)</FOR>
	<TABLE>0.383 0.617</TABLE>
</DEFINITION>

<DEFINITION>
	<FOR>religion(Country1)</FOR>
	<GIVEN>Borders(Country1, Country2)</GIVEN>
	<GIVEN>continent(Country2)</GIVEN>
	<GIVEN>religion(Country2)</GIVEN>
	<TABLE>0.83 0.17 0.159 0.841 0.0 1.0 0.046 0.954 0.901 0.099 0.75 0.25 0.0 1.0 0.057 0.943 0.5 0.5 1.0 0.0 0.383 0.617 0.383 0.617 0.383 0.617 0.5 0.5 0.383 0.617 0.5 0.5 0.383 0.617 0.5 0.5 0.383 0.617 0.5 0.5 0.381 0.619 0.384 0.616 0.385 0.615 0.5 0.5 0.381 0.619 0.5 0.5 0.385 0.615 0.5 0.5 0.5 0.5 0.5 0.5</TABLE>
</DEFINITION>

<DEFINITION>
	<FOR>continent(Country1)</FOR>
	<GIVEN>Borders(Country1, Country2)</GIVEN>
	<GIVEN>continent(Country2)</GIVEN>
	<GIVEN>religion(Country1)</GIVEN>
	<TABLE>1.0 0.0 0.0 0.0 0.0 1.0 0.0 0.0 0.0 0.0 0.0 1.0 0.0 0.0 0.0 0.0 1.0 0.0 0.0 0.0 0.0 0.0 1.0 0.0 0.0 0.0 0.0 0.727 0.181 0.092 0.0 0.0 0.285 0.714 0.001 0.0 0.0 0.0 1.0 0.0 0.0 0.0 1.0 0.0 0.0 0.2 0.2 0.2 0.2 0.2 0.323 0.056 0.464 0.028 0.129 0.201 0.315 0.043 0.342 0.099 0.323 0.056 0.464 0.028 0.129 0.201 0.315 0.043 0.342 0.099 0.323 0.056 0.464 0.028 0.129 0.201 0.315 0.043 0.342 0.099 0.323 0.056 0.464 0.028 0.129 0.201 0.315 0.043 0.342 0.099 0.323 0.056 0.464 0.028 0.129 0.201 0.315 0.043 0.342 0.099 0.32 0.056 0.467 0.028 0.129 0.197 0.317 0.044 0.343 0.099 0.325 0.051 0.467 0.028 0.129 0.202 0.312 0.044 0.343 0.099 0.325 0.056 0.462 0.028 0.129 0.202 0.317 0.04 0.342 0.099 0.325 0.056 0.465 0.024 0.13 0.202 0.317 0.044 0.338 0.099 0.325 0.056 0.462 0.028 0.129 0.2 0.2 0.2 0.2 0.2</TABLE>
</DEFINITION>

<DEFINITION>
	<FOR>industry(Economy)</FOR>
	<GIVEN>Agriculture(Economy)</GIVEN>
	<GIVEN>service(Economy)</GIVEN>
	<TABLE>0.0 0.0 0.0 0.0 1.0 0.0 0.0 0.0 1.0 0.0 0.0 0.0 0.0 1.0 0.0 0.0 0.0 0.0 1.0 0.0 0.0 0.285 0.714 0.0 0.001 0.0 0.0 0.0 0.333 0.667 0.0 0.0 0.0 1.0 0.0 0.0 0.0 0.2 0.8 0.0 0.0 0.0 0.714 0.285 0.001 0.0 0.181 0.818 0.0 0.001 0.0 0.0 0.0 1.0 0.0 0.0 0.0 0.0 1.0 0.0 0.0 0.0 0.625 0.375 0.0 0.0 0.111 0.888 0.0 0.001 0.0 0.8 0.2 0.0 0.0 0.0 0.0 1.0 0.0 0.0 0.0 0.0 1.0 0.0 0.0 0.0 0.0 1.0 0.0 0.0 0.0 0.75 0.25 0.0 0.0 0.0 1.0 0.0 0.0 0.0 0.083 0.666 0.25 0.0 0.001 0.0 0.9 0.1 0.0 0.0 0.0 1.0 0.0 0.0 0.0 1.0 0.0 0.0 0.0 0.0 0.2 0.2 0.2 0.2 0.2</TABLE>
</DEFINITION>

<DEFINITION>
	<FOR>gdp(Economy)</FOR>
	<GIVEN>Has(Country1, Economy)</GIVEN>
	<GIVEN>Population(Country1)</GIVEN>
	<GIVEN>continent(Country1)</GIVEN>
	<TABLE>0.2 0.2 0.2 0.2 0.2 0.75 0.25 0.0 0.0 0.0 0.2 0.2 0.2 0.2 0.2 0.2 0.2 0.2 0.2 0.2 1.0 0.0 0.0 0.0 0.0 0.888 0.111 0.0 0.0 0.001 0.8 0.0 0.2 0.0 0.0 0.4 0.2 0.4 0.0 0.0 0.25 0.5 0.25 0.0 0.0 0.0 1.0 0.0 0.0 0.0 0.625 0.375 0.0 0.0 0.0 0.0 0.333 0.666 0.0 0.001 0.0 0.5 0.375 0.125 0.0 0.0 0.142 0.285 0.571 0.002 0.0 0.0 0.0 1.0 0.0 0.0 0.461 0.538 0.0 0.001 0.0 0.0 0.333 0.666 0.001 0.0 0.2 0.0 0.6 0.2 0.0 0.0 0.083 0.75 0.167 0.2 0.2 0.2 0.2 0.2 0.0 0.0 0.6 0.4 0.0 0.0 0.0 0.0 0.0 1.0 0.0 0.0 0.09 0.0 0.91 0.0 0.0 0.0 0.2 0.8 0.2 0.2 0.2 0.2 0.2 0.2 0.2 0.2 0.2 0.2 0.2 0.2 0.2 0.2 0.2 0.2 0.2 0.2 0.2 0.2 0.2 0.2 0.2 0.2 0.2 0.2 0.2 0.2 0.2 0.2 0.2 0.2 0.2 0.2 0.2 0.2 0.2 0.2 0.2 0.2 0.2 0.2 0.2 0.2 0.2 0.2 0.2 0.2 0.2 0.2 0.2 0.2 0.2 0.2 0.2 0.2 0.2 0.2 0.2 0.2 0.2 0.2 0.2 0.2 0.2 0.2 0.2 0.2 0.2 0.2 0.2 0.2 0.2 0.2 0.2 0.2 0.2 0.2 0.2 0.2 0.2 0.2 0.2 0.2 0.2 0.2 0.2 0.2 0.2 0.2 0.2 0.2 0.2 0.2 0.2 0.2 0.2 0.2 0.2 0.2 0.2 0.2 0.2 0.2 0.2 0.2 0.2 0.2 0.2 0.2 0.2 0.2 0.2 0.2 0.2 0.2 0.2 0.2 0.2 0.2 0.2 0.2 0.2 0.2 0.2 0.2 0.2 0.2 0.2 0.2 0.0 0.0 0.0 0.0 1.0 0.0 0.0 0.0 0.0 1.0 0.0 0.0 0.0 0.0 1.0 0.0 0.0 0.0 0.0 1.0 0.0 0.0 0.0 0.0 1.0 0.0 0.0 0.0 0.0 1.0 0.0 0.0 0.0 0.0 1.0 0.0 0.0 0.0 0.0 1.0 0.0 0.0 0.0 0.0 1.0 0.0 0.0 0.0 0.0 1.0 0.0 0.0 0.0 0.0 1.0 0.0 0.0 0.0 0.0 1.0 0.0 0.0 0.0 0.0 1.0 0.0 0.0 0.0 0.0 1.0 0.0 0.0 0.0 0.0 1.0 0.0 0.0 0.0 0.0 1.0 0.0 0.0 0.0 0.0 1.0 0.0 0.0 0.0 0.0 1.0 0.0 0.0 0.0 0.0 1.0 0.0 0.0 0.0 0.0 1.0 0.0 0.0 0.0 0.0 1.0 0.0 0.0 0.0 0.0 1.0 0.0 0.0 0.0 0.0 1.0 0.0 0.0 0.0 0.0 1.0 0.0 0.0 0.0 0.0 1.0</TABLE>
</DEFINITION>

<DEFINITION>
	<FOR>Agriculture(Economy)</FOR>
	<GIVEN>Has(Country1, Economy)</GIVEN>
	<GIVEN>continent(Country1)</GIVEN>
	<TABLE>0.028 0.057 0.2 0.257 0.458 0.16 0.4 0.24 0.16 0.04 0.172 0.137 0.241 0.275 0.175 0.357 0.357 0.214 0.071 0.001 0.2 0.2 0.2 0.4 0.0 0.207 0.2 0.207 0.207 0.179 0.207 0.2 0.207 0.207 0.179 0.207 0.2 0.207 0.207 0.179 0.207 0.2 0.207 0.207 0.179 0.207 0.2 0.207 0.207 0.179 0.0 0.0 0.0 0.0 1.0 0.0 0.0 0.0 0.0 1.0 0.0 0.0 0.0 0.0 1.0 0.0 0.0 0.0 0.0 1.0 0.0 0.0 0.0 0.0 1.0</TABLE>
</DEFINITION>

<DEFINITION>
	<FOR>service(Economy)</FOR>
	<GIVEN>Agriculture(Economy)</GIVEN>
	<TABLE>0.142 0.178 0.214 0.214 0.252 0.111 0.037 0.185 0.259 0.408 0.107 0.107 0.285 0.321 0.18 0.178 0.321 0.25 0.142 0.109 0.5 0.416 0.041 0.041 0.002</TABLE>
</DEFINITION>
</NETWORK>
</BIF>
