<?xml version="1.0" encoding="UTF-8"?>
<BIF VERSION="0.3"  xmlns="http://www.cs.ubc.ca/labs/lci/fopi/ve/XMLBIFv0_3"
xmlns:xsi="http://www.w3.org/2001/XMLSchema-instance"
xsi:schemaLocation="http://www.cs.ubc.ca/labs/lci/fopi/ve/XMLBIFv0_3 http://www.cs.ubc.ca/labs/lci/fopi/ve/XMLBIFv0_3/XMLBIFv0_3.xsd">
<NETWORK>
<NAME>Mondial_Tutorial</NAME>
<VARIABLE TYPE="nature">
	<NAME>Borders(Country0,Country1)</NAME>
	<OUTCOME>T</OUTCOME>
	<PROPERTY> position=(6000.0,4000.0)</PROPERTY>
</VARIABLE>
<VARIABLE TYPE="nature">
	<NAME>Continent(Country0)</NAME>
	<OUTCOME>Africa</OUTCOME>
	<OUTCOME>America</OUTCOME>
	<OUTCOME>Asia</OUTCOME>
	<OUTCOME>Australia/Oceania</OUTCOME>
	<OUTCOME>Europe</OUTCOME>
	<PROPERTY> position=(6200.0,4000.0)</PROPERTY>
</VARIABLE>
<VARIABLE TYPE="nature">
	<NAME>Continent(Country1)</NAME>
	<OUTCOME>Africa</OUTCOME>
	<OUTCOME>America</OUTCOME>
	<OUTCOME>Asia</OUTCOME>
	<OUTCOME>Australia/Oceania</OUTCOME>
	<OUTCOME>Europe</OUTCOME>
	<PROPERTY> position=(6400.0,4000.0)</PROPERTY>
</VARIABLE>
<VARIABLE TYPE="nature">
	<NAME>DiscreteArea(Country0)</NAME>
	<OUTCOME>0</OUTCOME>
	<OUTCOME>1</OUTCOME>
	<OUTCOME>2</OUTCOME>
	<OUTCOME>3</OUTCOME>
	<PROPERTY> position=(6000.0,4200.0)</PROPERTY>
</VARIABLE>
<VARIABLE TYPE="nature">
	<NAME>DiscreteArea(Country1)</NAME>
	<OUTCOME>0</OUTCOME>
	<OUTCOME>1</OUTCOME>
	<OUTCOME>2</OUTCOME>
	<OUTCOME>3</OUTCOME>
	<PROPERTY> position=(6200.0,4200.0)</PROPERTY>
</VARIABLE>
<VARIABLE TYPE="nature">
	<NAME>DiscretePopulation(Country0)</NAME>
	<OUTCOME>0</OUTCOME>
	<OUTCOME>1</OUTCOME>
	<OUTCOME>2</OUTCOME>
	<OUTCOME>3</OUTCOME>
	<PROPERTY> position=(6400.0,4200.0)</PROPERTY>
</VARIABLE>
<VARIABLE TYPE="nature">
	<NAME>DiscretePopulation(Country1)</NAME>
	<OUTCOME>0</OUTCOME>
	<OUTCOME>1</OUTCOME>
	<OUTCOME>2</OUTCOME>
	<OUTCOME>3</OUTCOME>
	<PROPERTY> position=(6000.0,4400.0)</PROPERTY>
</VARIABLE>
<DEFINITION>
	<FOR>Borders(Country0,Country1)</FOR>
	<TABLE> 1.000000</TABLE>
</DEFINITION>
<DEFINITION>
	<FOR>Continent(Country0)</FOR>
	<GIVEN>Borders(Country0,Country1)</GIVEN>
	<GIVEN>Continent(Country1)</GIVEN>
	<GIVEN>DiscretePopulation(Country0)</GIVEN>
	<TABLE> 0.500000 0.125000 0.125000 0.125000 0.125000 0.893616 0.021277 0.042553 0.021277 0.021277 0.943181 0.011364 0.022727 0.011364 0.011364 0.954024 0.011494 0.011494 0.011494 0.011494 0.142857 0.428572 0.142857 0.142857 0.142857 0.062500 0.750000 0.062500 0.062500 0.062500 0.035714 0.857144 0.035714 0.035714 0.035714 0.024390 0.902440 0.024390 0.024390 0.024390 0.200000 0.200000 0.200000 0.200000 0.200000 0.035714 0.035714 0.785715 0.035714 0.107143 0.018868 0.018868 0.792453 0.037736 0.132075 0.026549 0.008850 0.929202 0.008850 0.026549 0.200000 0.200000 0.200000 0.200000 0.200000 0.200000 0.200000 0.200000 0.200000 0.200000 0.200000 0.200000 0.200000 0.200000 0.200000 0.166667 0.166667 0.333332 0.166667 0.166667 0.083333 0.083333 0.083333 0.083333 0.666668 0.026316 0.026316 0.026316 0.026316 0.894736 0.013333 0.013333 0.013333 0.013333 0.946668 0.016393 0.016393 0.180328 0.016393 0.770493</TABLE>
</DEFINITION>
<DEFINITION>
	<FOR>Continent(Country1)</FOR>
	<TABLE> 0.333333 0.115324 0.284360 0.003160 0.263823</TABLE>
</DEFINITION>
<DEFINITION>
	<FOR>DiscreteArea(Country0)</FOR>
	<GIVEN>Borders(Country0,Country1)</GIVEN>
	<GIVEN>DiscreteArea(Country1)</GIVEN>
	<TABLE> 0.076923 0.230769 0.307692 0.384616 0.025000 0.308333 0.408334 0.258333 0.019139 0.234450 0.358852 0.387559 0.016556 0.102649 0.268212 0.612583</TABLE>
</DEFINITION>
<DEFINITION>
	<FOR>DiscreteArea(Country1)</FOR>
	<TABLE> 0.015823 0.185127 0.325949 0.473101</TABLE>
</DEFINITION>
<DEFINITION>
	<FOR>DiscretePopulation(Country0)</FOR>
	<GIVEN>DiscreteArea(Country0)</GIVEN>
	<TABLE> 0.615385 0.230769 0.076923 0.076923 0.025000 0.508333 0.441667 0.025000 0.019139 0.143541 0.545454 0.291866 0.003311 0.062914 0.198675 0.735100</TABLE>
</DEFINITION>
<DEFINITION>
	<FOR>DiscretePopulation(Country1)</FOR>
	<TABLE> 0.020570 0.174051 0.356012 0.449367</TABLE>
</DEFINITION>
</NETWORK>
</BIF>